310.76088416131716,-82.57587246516788,0.4795036726819515,106.27834682151173,49.38835527374705,199.90687227869634,-26.572080204604934
142.86167088082627,27.136984546697214,3.1715544566013416,16.130910813373465,32.66944813740807,63.62272022627491,127.61957607434347
7.424127534832122,3.0303030303030303,1.998989898989899
27.136984546697214,59.92342833604013,0.7487356277765939
0.03500979,-0.38278443,0.5155888,0.3021507,-0.46624705,-0.30322635,0.07826772,-0.43194193,0.5178973,0.56258655,-0.23383251,-0.6804468,0.0027833276,-0.7306528,0.42701578,0.5095222,-0.40078402,0.25610152,-0.0055673583,-0.10391853,-0.23653643,-0.35449144,-0.41849533,-0.38056874,-0.7771048,0.2704682,0.28331456,-0.12972833,0.24445471,-0.31923935,-0.12322129,-0.6226226,0.5921001,-0.42248446,-0.009818338,0.199388,-0.26100665,0.14599924,0.40600908,-0.00042700546,-0.37187222,0.40740725,0.16344163,-0.38249648,-0.4291291,0.03509924,0.21513538,0.09777213,-0.3212141,-0.49041083,0.34666905,-0.40437135,0.04437813,0.0043671904,-0.045589805,-0.15289544,0.3365442,-0.0063005886,-0.41337833,0.18765426,-0.22363137,-0.37816107,0.39267433,-0.4862555,-0.121785864,0.46795905,-0.5747704,0.6105532,-0.35639378,0.24886066,-0.5113203,-0.064304344,-0.48594868,0.17336151,0.3909613,-0.098377265,-0.35332444,-0.2743447,0.18702494,0.43432006,0.5103257,-0.04477451,-0.28429708,0.12828293,0.29660666,0.06996965,0.43909982,0.14538251,0.38519415,0.53316945,-0.17607716,-0.32022607,-0.26925474,-0.13659763,-0.024673069,0.104985535,0.02101745,0.050286043,0.33811945,0.34256458,-0.56972235,0.14516465,-0.041890055,0.12817545,0.3628416,0.43343496,0.08371618,-0.32381076,-0.31463832,0.29991117,0.14539145,-0.22557305,-0.29878062,0.27253857,0.41637084,-0.68019027,0.2199979,0.14333437,-0.14854454,-0.23310389,-0.17764111,0.1298812,-0.3346021,0.6909292,-0.034461867,0.17179424,0.16478358,0.32220122,0.20173766,-0.020105964,-0.41550305,-0.080060795,0.23349725,-0.09493172,-0.0021549226,-0.2039395,-0.08947203,-0.18548635,-0.06661451,0.33567673
-0.030296424,0.35249126,0.03361496,0.14728555,0.07168445,-0.011211158,0.04216582,0.16651776,-0.048258062,0.2252033,-0.06972363,0.0047890325,0.08250872,0.1372747,0.17034596,-0.10866382,-0.16862209,0.12053383,-0.15935215,0.14394763
0.3280662,-0.1809559,-0.12032554,-0.10459253,0.4280368,-0.34174076,0.14453617,-0.43881094,0.15391712,0.36866418,-0.26775476,0.13641454,-0.1113608,0.26513767,0.30315065,-0.44624287,0.14093573,-0.46877137,0.083912715,0.18383688,0.32098594,0.3857513,-0.293389,0.1218891,0.3327165,0.010075427,0.028674835,0.008435377,0.050570525,0.094292246,0.31729916,-0.058699273,-0.5339071,0.08357851,-0.108603895,0.29896325,-0.5463137,-0.122201145,-0.06820771,0.2768128,0.21527305,0.07202737,-0.0043721544,0.35809362,0.110814534,-0.23356812,-0.21445696,-0.5361156,-0.32108113,-0.4834734,0.36913604,-0.33355525,-0.40751255,0.20991589,0.18757829,-0.7451289,0.095505916,-0.8313794,0.1067766,0.2696433,0.35328564,0.30801633,0.09185092,0.08079386,0.05316033,-0.15958871,-0.025157668,-0.19526267,-0.45990393,-0.7965499,0.05841815,-0.4784077,0.025290411,0.090644166,0.25381795,0.07840747,0.039556183,-0.69396603,0.45207042,-0.3985838,0.24765338,-0.23688178,-0.006001338,-0.39993796,0.1347349,-0.36081445,0.26468116,-0.5398345,0.34426785,-0.10746736,0.32790303,0.21867232,-0.27079958,-0.13633014,-0.48202857,0.12778059,-0.11067571,-0.054346696,0.07209398,0.049333412,0.11825482,-0.50625384,0.19813046,-0.06616713,0.11550795,0.028097803,-0.3898495,0.05684067,-0.17308891,0.47072527,-0.02661057,-0.19321552,0.40173918,0.053748626,0.4225549,0.019372707,0.24787064,0.4704822,0.055344746,0.05295221,-0.24856994,0.06693063,0.24712276,-0.17178816,-0.10776937,0.3280426,-0.390513,0.209371,0.18073082,0.2642875,-0.15666206,0.2760641,0.1254841,-0.034397427,0.535083,0.28885204,0.2647856,-0.5261654,0.41609457,-0.38230908,0.18774146,0.1412924,0.047745768,-0.077903524,0.39927423,-0.34751767,-0.13020399,-0.24203621,-0.22556578,0.3455913,0.17183274,-0.35781664,-0.13448106,-0.46223372,-0.07301081,-0.3401466,-0.045308955,0.14227535,-0.03221747,-0.24078646,0.4232492,0.21344964,-0.16588016,0.45809862,-0.48632422,0.29875785,-0.2419911,0.28092036,-0.1767221,-0.23444568,0.15180369,0.12512034,-0.22432858,0.12938207,-0.170826,0.30324522,-0.06658903,-0.6132514,0.0983333,0.25032586,-0.14632739,0.12502252,-0.28779078,-0.3580995,-0.3234217,-0.44571254,-0.35935542,0.30663872,0.27594885,-0.049127452,-0.29011333,-0.4201023,0.12087987,-0.007023744,0.08083495,0.031537376,-0.060379375,-0.17365308,0.41878468,0.26247132,0.08313095,0.095719844,-0.15984549,-0.10538325,-0.3982545,-0.07426034,0.09538967,-0.021324633,0.16328575,0.3454538,-0.2741862,0.081073515,0.21703349,0.36601415,-0.4190723,0.2039536,0.18417157,-0.59884906,0.45529553,0.025727645,-0.5223801,-0.06534918,-0.26829082,0.21720529,0.6048353,-0.20169644,-0.23977496,0.108155765,0.45487982,-0.2568993,-0.31025285,-0.22679557,0.29376322,0.37388292,-0.5771841,-0.41623932,-0.04079833,0.41423586,-0.2937291,0.13601734,-0.17519844,-0.07378837,-0.5127485,-0.18016677,-0.4312127,-0.07933181,-0.23827437,0.53414714,0.04005248,0.3769773,-0.13265038,0.262396,0.5091293,-0.35503903,-0.48155966,0.013319663,0.41071534,-0.12531583,-0.5792983,-0.0063749966,-0.41693676,0.28271857,0.16621287,-0.19657537,0.456647,0.010368808,-0.051452003,-0.16560888,-0.7920112,0.41074383,-0.36723277,-0.20557077,-0.13228399,-0.23185368,0.176897,-0.5532041,0.014753993,-0.1586657,0.22296722,-0.4587498,0.023554977,-0.07245156,-0.5365731,0.3085324,-0.37673625,-0.7330031,0.20185982,-0.13606302,0.10414002,0.1455347,0.26766032,-0.18579736,0.20479675,0.39892575,-0.1874197,-0.24814875,0.06797448,-0.0924528,0.41797742,0.38117555,-0.27984995,-0.40424737,-0.3707934,-0.002961746,-0.1669535,-0.08321603,0.14628625,0.10843396,0.2856203,0.10113091,0.16526549,0.05020589,0.19297183,-0.25670266,0.30249923,0.12617822,-0.07693493,-0.26091295,-0.17683509,0.22272936,-0.11414359,0.06426811,0.27061096,0.20986179,0.0812738,0.16031218,0.26853564,0.10890149,-0.59871316,0.2507801,-0.052667703,0.058176313,0.17814922,0.22030576,-0.05500911,-0.10456273,0.17847627,-0.17879197,-0.012067826,-0.27190903,-0.20199713,-0.14581263,-0.11808154,-0.2811752,-0.7107483,-0.07277037,-0.070016555,0.18807247,-0.28409493,-0.055208545,0.15551749,-0.044958305,0.0959095,0.1699958,0.078757346,-0.25699458,0.33731344,0.06836021,0.12032195,-0.36274287,0.28616223,0.23631111,0.09036092,-0.1159533,-0.17296305,0.403383,-0.3344305,0.17462222,0.15541513,0.12982504,0.27363375,-0.11377056,0.36417174,0.1622123,-0.44495383,-0.33037353,0.24747913,-0.28772473,-0.3571631,0.36075675,0.27082396,0.23366027,0.27569863,0.3811353,-0.2801216,0.15801874,-0.36859182,0.051325977,-0.51358855,0.122337975,0.13267344,-0.17893709,0.08806967,-0.5029422,0.3245513,0.028133852,-0.04886109,0.23427616,-0.40188518,-0.30967098
0.08387296,0.0716368,-0.07601584,0.17275663,-0.08419473,0.03263941,-0.04927727,-0.057127103,-0.14318286,0.091682315,0.16194117,0.1356378,0.04727324,0.0017923794,-0.0053861686,-0.031362016,-0.114411086,0.14413744,-0.0355162,-0.03742951
-0.068634525,0.5574893,0.015199161,0.012027155,0.5746442,0.23300983,0.26636878,0.2075819,0.15896311,-0.2173017,-0.16752811,-0.55833477,-0.11816306,0.30818036,0.6412961,0.13609098,-0.013326341,0.3465734,0.4404016,0.37050977,-0.35130543,0.3649065,0.5216708,-0.3366748,-0.22441176,0.65411407,-0.4014078,0.012414746,-0.5425454,0.30650535,0.16079833,0.46026823,-0.20801938,0.5898581,-0.030317632,-0.16847423,0.53405267,-0.3207476,0.15328126,-0.026874796,-0.2409673,-0.5934592,0.052318495,-0.5356497,-0.49818483,-0.44092804,0.59766257,0.16540667,0.46947116,-0.1672852,-0.10978098,0.22197127,-1.5198073,0.17358896,-0.15986465,-0.6454792,-0.25390637,-0.0130903665,0.56411517,-0.015903393
-0.16546662,-0.082862586,0.1473729
